<?xml version="1.0"?>
<opencv_storage>
<cascade>
  <stageType>BOOST</stageType>
  <featureType>HAAR</featureType>
  <height>20</height>
  <width>20</width>
  <stageParams>
    <boostType>GAB</boostType>
    <minHitRate>9.9900001287460327e-01</minHitRate>
    <maxFalseAlarm>5.0000000000000000e-01</maxFalseAlarm>
    <weightTrimRate>9.4999999999999996e-01</weightTrimRate>
    <maxDepth>1</maxDepth>
    <maxWeakCount>100</maxWeakCount></stageParams>
  <featureParams>
    <maxCatCount>0</maxCatCount>
    <featSize>1</featSize>
    <mode>BASIC</mode></featureParams>
  <stageNum>7</stageNum>
  <stages>
    <!-- stage 0 -->
    <_>
      <maxWeakCount>2</maxWeakCount>
      <stageThreshold>-1.0129780508577824e-02</stageThreshold>
      <weakClassifiers>
        <_>
          <internalNodes>
            0 -1 6 -4.6541392803192139e-02</internalNodes>
          <leafValues>
            9.5975857973098755e-01 -8.9723318815231323e-01</leafValues></_>
        <_>
          <internalNodes>
            0 -1 24 1.1636792123317719e-01</internalNodes>
          <leafValues>
            -9.6988832950592041e-01 9.0160417556762695e-01</leafValues></_></weakClassifiers></_>
    <!-- stage 1 -->
    <_>
      <maxWeakCount>3</maxWeakCount>
      <stageThreshold>-1.0022813081741333e+00</stageThreshold>
      <weakClassifiers>
        <_>
          <internalNodes>
            0 -1 13 -1.6997778415679932e-01</internalNodes>
          <leafValues>
            9.0917873382568359e-01 -9.4838708639144897e-01</leafValues></_>
        <_>
          <internalNodes>
            0 -1 30 2.0716182887554169e-02</internalNodes>
          <leafValues>
            -8.4689098596572876e-01 7.9375404119491577e-01</leafValues></_>
        <_>
          <internalNodes>
            0 -1 5 -1.1685244739055634e-02</internalNodes>
          <leafValues>
            7.9299676418304443e-01 -8.4372836351394653e-01</leafValues></_></weakClassifiers></_>
    <!-- stage 2 -->
    <_>
      <maxWeakCount>2</maxWeakCount>
      <stageThreshold>-2.0290474593639374e-01</stageThreshold>
      <weakClassifiers>
        <_>
          <internalNodes>
            0 -1 9 1.3913060724735260e-01</internalNodes>
          <leafValues>
            -9.1762012243270874e-01 8.4760111570358276e-01</leafValues></_>
        <_>
          <internalNodes>
            0 -1 23 1.1190801858901978e-01</internalNodes>
          <leafValues>
            -9.1254240274429321e-01 7.1471542119979858e-01</leafValues></_></weakClassifiers></_>
    <!-- stage 3 -->
    <_>
      <maxWeakCount>5</maxWeakCount>
      <stageThreshold>-1.5500553846359253e+00</stageThreshold>
      <weakClassifiers>
        <_>
          <internalNodes>
            0 -1 16 1.2472091242671013e-02</internalNodes>
          <leafValues>
            -8.4096384048461914e-01 7.8248846530914307e-01</leafValues></_>
        <_>
          <internalNodes>
            0 -1 4 3.3495258539915085e-02</internalNodes>
          <leafValues>
            -9.4339054822921753e-01 5.7159113883972168e-01</leafValues></_>
        <_>
          <internalNodes>
            0 -1 33 1.5475440770387650e-02</internalNodes>
          <leafValues>
            -7.2606623172760010e-01 6.0049211978912354e-01</leafValues></_>
        <_>
          <internalNodes>
            0 -1 14 -5.6485501118004322e-03</internalNodes>
          <leafValues>
            5.2286005020141602e-01 -8.4823769330978394e-01</leafValues></_>
        <_>
          <internalNodes>
            0 -1 26 3.9364602416753769e-03</internalNodes>
          <leafValues>
            -9.8179864883422852e-01 2.9362124204635620e-01</leafValues></_></weakClassifiers></_>
    <!-- stage 4 -->
    <_>
      <maxWeakCount>6</maxWeakCount>
      <stageThreshold>-1.2937245368957520e+00</stageThreshold>
      <weakClassifiers>
        <_>
          <internalNodes>
            0 -1 31 2.4897852912545204e-02</internalNodes>
          <leafValues>
            -7.4883723258972168e-01 7.6822429895401001e-01</leafValues></_>
        <_>
          <internalNodes>
            0 -1 3 -2.0836690068244934e-01</internalNodes>
          <leafValues>
            6.4560848474502563e-01 -7.7007633447647095e-01</leafValues></_>
        <_>
          <internalNodes>
            0 -1 10 1.9877558946609497e-01</internalNodes>
          <leafValues>
            -9.4256848096847534e-01 4.9505743384361267e-01</leafValues></_>
        <_>
          <internalNodes>
            0 -1 18 -2.2433917038142681e-03</internalNodes>
          <leafValues>
            2.9872465133666992e-01 -8.6945235729217529e-01</leafValues></_>
        <_>
          <internalNodes>
            0 -1 29 9.3415029346942902e-02</internalNodes>
          <leafValues>
            -7.0276796817779541e-01 4.5348581671714783e-01</leafValues></_>
        <_>
          <internalNodes>
            0 -1 11 -2.0015047863125801e-02</internalNodes>
          <leafValues>
            4.1554698348045349e-01 -8.9215636253356934e-01</leafValues></_></weakClassifiers></_>
    <!-- stage 5 -->
    <_>
      <maxWeakCount>10</maxWeakCount>
      <stageThreshold>-1.8010108470916748e+00</stageThreshold>
      <weakClassifiers>
        <_>
          <internalNodes>
            0 -1 0 -4.2619287967681885e-02</internalNodes>
          <leafValues>
            7.0572209358215332e-01 -6.9423556327819824e-01</leafValues></_>
        <_>
          <internalNodes>
            0 -1 22 1.7983194440603256e-02</internalNodes>
          <leafValues>
            -8.6750501394271851e-01 5.2751308679580688e-01</leafValues></_>
        <_>
          <internalNodes>
            0 -1 15 -2.5960426777601242e-02</internalNodes>
          <leafValues>
            5.6483501195907593e-01 -5.9713405370712280e-01</leafValues></_>
        <_>
          <internalNodes>
            0 -1 25 1.5024208463728428e-02</internalNodes>
          <leafValues>
            -8.5717105865478516e-01 3.9845880866050720e-01</leafValues></_>
        <_>
          <internalNodes>
            0 -1 20 -2.3002788424491882e-02</internalNodes>
          <leafValues>
            6.0431265830993652e-01 -5.4455202817916870e-01</leafValues></_>
        <_>
          <internalNodes>
            0 -1 17 -1.7189221456646919e-02</internalNodes>
          <leafValues>
            5.0118416547775269e-01 -6.0744446516036987e-01</leafValues></_>
        <_>
          <internalNodes>
            0 -1 7 2.4297386407852173e-03</internalNodes>
          <leafValues>
            2.4341420829296112e-01 -9.3067026138305664e-01</leafValues></_>
        <_>
          <internalNodes>
            0 -1 28 3.5111112520098686e-03</internalNodes>
          <leafValues>
            -8.1113761663436890e-01 2.9306355118751526e-01</leafValues></_>
        <_>
          <internalNodes>
            0 -1 2 8.2164049148559570e-02</internalNodes>
          <leafValues>
            -9.0940833091735840e-01 2.8993585705757141e-01</leafValues></_>
        <_>
          <internalNodes>
            0 -1 34 5.9102652594447136e-03</internalNodes>
          <leafValues>
            -8.2364076375961304e-01 3.3895155787467957e-01</leafValues></_></weakClassifiers></_>
    <!-- stage 6 -->
    <_>
      <maxWeakCount>7</maxWeakCount>
      <stageThreshold>-1.1010590791702271e+00</stageThreshold>
      <weakClassifiers>
        <_>
          <internalNodes>
            0 -1 32 3.7652147002518177e-03</internalNodes>
          <leafValues>
            -7.9579579830169678e-01 6.5552699565887451e-01</leafValues></_>
        <_>
          <internalNodes>
            0 -1 19 -3.2809039112180471e-03</internalNodes>
          <leafValues>
            4.1095668077468872e-01 -9.2472666501998901e-01</leafValues></_>
        <_>
          <internalNodes>
            0 -1 12 3.1168648600578308e-01</internalNodes>
          <leafValues>
            -8.0754792690277100e-01 3.9959150552749634e-01</leafValues></_>
        <_>
          <internalNodes>
            0 -1 1 -1.7056010663509369e-02</internalNodes>
          <leafValues>
            3.6030182242393494e-01 -7.9678690433502197e-01</leafValues></_>
        <_>
          <internalNodes>
            0 -1 21 2.4446635507047176e-03</internalNodes>
          <leafValues>
            -6.1678880453109741e-01 4.5109307765960693e-01</leafValues></_>
        <_>
          <internalNodes>
            0 -1 8 2.2679707035422325e-03</internalNodes>
          <leafValues>
            -9.5230591297149658e-01 2.3323851823806763e-01</leafValues></_>
        <_>
          <internalNodes>
            0 -1 27 -2.1751231979578733e-03</internalNodes>
          <leafValues>
            2.4312035739421844e-01 -7.7543014287948608e-01</leafValues></_></weakClassifiers></_></stages>
  <features>
    <_>
      <rects>
        <_>
          0 2 4 16 -1.</_>
        <_>
          2 2 2 16 2.</_></rects>
      <tilted>0</tilted></_>
    <_>
      <rects>
        <_>
          0 2 12 5 -1.</_>
        <_>
          4 2 4 5 3.</_></rects>
      <tilted>0</tilted></_>
    <_>
      <rects>
        <_>
          0 4 4 16 -1.</_>
        <_>
          0 12 4 8 2.</_></rects>
      <tilted>0</tilted></_>
    <_>
      <rects>
        <_>
          0 11 18 8 -1.</_>
        <_>
          6 11 6 8 3.</_></rects>
      <tilted>0</tilted></_>
    <_>
      <rects>
        <_>
          0 11 11 6 -1.</_>
        <_>
          0 14 11 3 2.</_></rects>
      <tilted>0</tilted></_>
    <_>
      <rects>
        <_>
          0 13 4 4 -1.</_>
        <_>
          2 13 2 4 2.</_></rects>
      <tilted>0</tilted></_>
    <_>
      <rects>
        <_>
          0 14 8 4 -1.</_>
        <_>
          4 14 4 4 2.</_></rects>
      <tilted>0</tilted></_>
    <_>
      <rects>
        <_>
          0 14 7 3 -1.</_>
        <_>
          0 15 7 1 3.</_></rects>
      <tilted>0</tilted></_>
    <_>
      <rects>
        <_>
          0 14 12 2 -1.</_>
        <_>
          0 15 12 1 2.</_></rects>
      <tilted>0</tilted></_>
    <_>
      <rects>
        <_>
          1 6 7 14 -1.</_>
        <_>
          1 13 7 7 2.</_></rects>
      <tilted>0</tilted></_>
    <_>
      <rects>
        <_>
          1 10 17 10 -1.</_>
        <_>
          1 15 17 5 2.</_></rects>
      <tilted>0</tilted></_>
    <_>
      <rects>
        <_>
          1 12 4 7 -1.</_>
        <_>
          3 12 2 7 2.</_></rects>
      <tilted>0</tilted></_>
    <_>
      <rects>
        <_>
          2 4 17 16 -1.</_>
        <_>
          2 12 17 8 2.</_></rects>
      <tilted>0</tilted></_>
    <_>
      <rects>
        <_>
          2 10 18 9 -1.</_>
        <_>
          8 10 6 9 3.</_></rects>
      <tilted>0</tilted></_>
    <_>
      <rects>
        <_>
          2 11 2 9 -1.</_>
        <_>
          3 11 1 9 2.</_></rects>
      <tilted>0</tilted></_>
    <_>
      <rects>
        <_>
          2 17 8 2 -1.</_>
        <_>
          6 17 4 2 2.</_></rects>
      <tilted>0</tilted></_>
    <_>
      <rects>
        <_>
          2 17 17 2 -1.</_>
        <_>
          2 18 17 1 2.</_></rects>
      <tilted>0</tilted></_>
    <_>
      <rects>
        <_>
          3 3 9 10 -1.</_>
        <_>
          6 3 3 10 3.</_></rects>
      <tilted>0</tilted></_>
    <_>
      <rects>
        <_>
          3 11 8 2 -1.</_>
        <_>
          7 11 4 2 2.</_></rects>
      <tilted>0</tilted></_>
    <_>
      <rects>
        <_>
          3 14 2 6 -1.</_>
        <_>
          4 14 1 6 2.</_></rects>
      <tilted>0</tilted></_>
    <_>
      <rects>
        <_>
          5 0 12 6 -1.</_>
        <_>
          5 2 12 2 3.</_></rects>
      <tilted>0</tilted></_>
    <_>
      <rects>
        <_>
          9 7 8 4 -1.</_>
        <_>
          9 7 4 2 2.</_>
        <_>
          13 9 4 2 2.</_></rects>
      <tilted>0</tilted></_>
    <_>
      <rects>
        <_>
          11 15 8 4 -1.</_>
        <_>
          11 17 8 2 2.</_></rects>
      <tilted>0</tilted></_>
    <_>
      <rects>
        <_>
          12 0 8 19 -1.</_>
        <_>
          16 0 4 19 2.</_></rects>
      <tilted>0</tilted></_>
    <_>
      <rects>
        <_>
          12 6 8 14 -1.</_>
        <_>
          12 13 8 7 2.</_></rects>
      <tilted>0</tilted></_>
    <_>
      <rects>
        <_>
          12 9 8 6 -1.</_>
        <_>
          12 12 8 3 2.</_></rects>
      <tilted>0</tilted></_>
    <_>
      <rects>
        <_>
          12 10 4 9 -1.</_>
        <_>
          14 10 2 9 2.</_></rects>
      <tilted>0</tilted></_>
    <_>
      <rects>
        <_>
          12 12 6 7 -1.</_>
        <_>
          14 12 2 7 3.</_></rects>
      <tilted>0</tilted></_>
    <_>
      <rects>
        <_>
          14 3 2 17 -1.</_>
        <_>
          15 3 1 17 2.</_></rects>
      <tilted>0</tilted></_>
    <_>
      <rects>
        <_>
          16 2 3 18 -1.</_>
        <_>
          16 11 3 9 2.</_></rects>
      <tilted>0</tilted></_>
    <_>
      <rects>
        <_>
          16 11 4 8 -1.</_>
        <_>
          18 11 2 8 2.</_></rects>
      <tilted>0</tilted></_>
    <_>
      <rects>
        <_>
          16 12 4 7 -1.</_>
        <_>
          18 12 2 7 2.</_></rects>
      <tilted>0</tilted></_>
    <_>
      <rects>
        <_>
          16 14 2 6 -1.</_>
        <_>
          17 14 1 6 2.</_></rects>
      <tilted>0</tilted></_>
    <_>
      <rects>
        <_>
          18 1 2 17 -1.</_>
        <_>
          19 1 1 17 2.</_></rects>
      <tilted>0</tilted></_>
    <_>
      <rects>
        <_>
          18 3 2 16 -1.</_>
        <_>
          19 3 1 16 2.</_></rects>
      <tilted>0</tilted></_></features></cascade>
</opencv_storage>
